digraph Tree {
node [shape=box, style="filled, rounded", color="black", fontname=helvetica] ;
edge [fontname=helvetica] ;
0 [label="utilization_under_half <= 0.5\nentropy = 0.637\nsamples = 30762\nvalue = [25809, 4953]\nclass = NoDelinquency", fillcolor="#e58139ce"] ;
1 [label="NumberOfTime30-59DaysPastDueNotWorse <= 0.5\nentropy = 0.89\nsamples = 11870\nvalue = [8227, 3643]\nclass = NoDelinquency", fillcolor="#e581398e"] ;
0 -> 1 [labeldistance=2.5, labelangle=45, headlabel="True"] ;
2 [label="utilization_over_half <= 0.5\nentropy = 0.743\nsamples = 8295\nvalue = [6547, 1748]\nclass = NoDelinquency", fillcolor="#e58139bb"] ;
1 -> 2 ;
3 [label="entropy = 0.527\nsamples = 2327\nvalue = [2050, 277]\nclass = NoDelinquency", fillcolor="#e58139dd"] ;
2 -> 3 ;
4 [label="entropy = 0.806\nsamples = 5968\nvalue = [4497, 1471]\nclass = NoDelinquency", fillcolor="#e58139ac"] ;
2 -> 4 ;
5 [label="NumberOfTime30-59DaysPastDueNotWorse <= 1.5\nentropy = 0.997\nsamples = 3575\nvalue = [1680, 1895]\nclass = Delinquency", fillcolor="#399de51d"] ;
1 -> 5 ;
6 [label="entropy = 0.987\nsamples = 1989\nvalue = [1128, 861]\nclass = NoDelinquency", fillcolor="#e581393c"] ;
5 -> 6 ;
7 [label="entropy = 0.932\nsamples = 1586\nvalue = [552, 1034]\nclass = Delinquency", fillcolor="#399de577"] ;
5 -> 7 ;
8 [label="NumberOfTime30-59DaysPastDueNotWorse <= 0.5\nentropy = 0.363\nsamples = 18892\nvalue = [17582, 1310]\nclass = NoDelinquency", fillcolor="#e58139ec"] ;
0 -> 8 [labeldistance=2.5, labelangle=-45, headlabel="False"] ;
9 [label="age_bracket_60-80 <= 0.5\nentropy = 0.272\nsamples = 16558\nvalue = [15787, 771]\nclass = NoDelinquency", fillcolor="#e58139f3"] ;
8 -> 9 ;
10 [label="entropy = 0.311\nsamples = 11140\nvalue = [10516, 624]\nclass = NoDelinquency", fillcolor="#e58139f0"] ;
9 -> 10 ;
11 [label="entropy = 0.18\nsamples = 5418\nvalue = [5271, 147]\nclass = NoDelinquency", fillcolor="#e58139f8"] ;
9 -> 11 ;
12 [label="NumberOfTime30-59DaysPastDueNotWorse <= 1.5\nentropy = 0.78\nsamples = 2334\nvalue = [1795, 539]\nclass = NoDelinquency", fillcolor="#e58139b2"] ;
8 -> 12 ;
13 [label="entropy = 0.678\nsamples = 1679\nvalue = [1378, 301]\nclass = NoDelinquency", fillcolor="#e58139c7"] ;
12 -> 13 ;
14 [label="entropy = 0.945\nsamples = 655\nvalue = [417, 238]\nclass = NoDelinquency", fillcolor="#e581396d"] ;
12 -> 14 ;
}